Language model created by QuickLM on Wed Jul 24 08:06:48 EDT 2024
Copyright (c) 1996-2010 Carnegie Mellon University and Alexander I. Rudnicky

The model is in standard ARPA format, designed by Doug Paul while he was at MITRE.

The code that was used to produce this language model is available in Open Source.
Please visit http://www.speech.cs.cmu.edu/tools/ for more information

The (fixed) discount mass is 0.5. The backoffs are computed using the ratio method.
This model based on a corpus of 3 sentences and 10 words

\data\
ngram 1=10
ngram 2=11
ngram 3=10

\1-grams:
-1.1027 </s> -0.3010
-1.1027 <s> -0.2653
-1.5798 BHARATH -0.2653
-1.1027 BUJJI -0.2653
-1.5798 CALL -0.2894
-1.5798 GOOGLE -0.2653
-1.1027 HEY -0.2653
-1.2788 OPEN -0.2775
-1.5798 TO -0.2894
-1.5798 YOUTUBE -0.2653

\2-grams:
-0.3010 <s> HEY 0.0000
-0.3010 BHARATH </s> -0.3010
-0.7782 BUJJI CALL 0.0000
-0.4771 BUJJI OPEN 0.0000
-0.3010 CALL TO 0.0000
-0.3010 GOOGLE </s> -0.3010
-0.3010 HEY BUJJI 0.0000
-0.6021 OPEN GOOGLE 0.0000
-0.6021 OPEN YOUTUBE 0.0000
-0.3010 TO BHARATH 0.0000
-0.3010 YOUTUBE </s> -0.3010

\3-grams:
-0.3010 <s> HEY BUJJI
-0.3010 BUJJI CALL TO
-0.6021 BUJJI OPEN GOOGLE
-0.6021 BUJJI OPEN YOUTUBE
-0.3010 CALL TO BHARATH
-0.7782 HEY BUJJI CALL
-0.4771 HEY BUJJI OPEN
-0.3010 OPEN GOOGLE </s>
-0.3010 OPEN YOUTUBE </s>
-0.3010 TO BHARATH </s>

\end\